<?xml version="1.0"?>
<opencv_storage>
<stage7>
  <maxWeakCount>65</maxWeakCount>
  <stageThreshold>-1.4502334594726562e+00</stageThreshold>
  <weakClassifiers>
    <_>
      <internalNodes>
        0 -1 126967 1.1975946836173534e-02</internalNodes>
      <leafValues>
        -2.4325890839099884e-01 1.6528522968292236e-01</leafValues></_>
    <_>
      <internalNodes>
        0 -1 179512 -2.5778037961572409e-03</internalNodes>
      <leafValues>
        3.0662834644317627e-01 -1.3253760337829590e-01</leafValues></_>
    <_>
      <internalNodes>
        0 -1 35198 -5.3038071841001511e-02</internalNodes>
      <leafValues>
        2.2293810546398163e-01 -1.5803439915180206e-01</leafValues></_>
    <_>
      <internalNodes>
        0 -1 221569 2.3820695932954550e-03</internalNodes>
      <leafValues>
        -1.3022425770759583e-01 2.9046344757080078e-01</leafValues></_>
    <_>
      <internalNodes>
        0 -1 74222 2.3020261432975531e-03</internalNodes>
      <leafValues>
        -2.3795551061630249e-01 1.6960671544075012e-01</leafValues></_>
    <_>
      <internalNodes>
        0 -1 208670 2.0829949527978897e-02</internalNodes>
      <leafValues>
        9.3153387308120728e-02 -4.7607168555259705e-01</leafValues></_>
    <_>
      <internalNodes>
        0 -1 124093 -1.4848443679511547e-03</internalNodes>
      <leafValues>
        3.4979301691055298e-01 -1.2549048662185669e-01</leafValues></_>
    <_>
      <internalNodes>
        0 -1 123429 5.3267047042027116e-04</internalNodes>
      <leafValues>
        -1.2560912966728210e-01 2.4735215306282043e-01</leafValues></_>
    <_>
      <internalNodes>
        0 -1 96905 -1.5352563932538033e-02</internalNodes>
      <leafValues>
        2.7671083807945251e-01 -1.2238010019063950e-01</leafValues></_>
    <_>
      <internalNodes>
        0 -1 15702 1.2834841385483742e-02</internalNodes>
      <leafValues>
        -1.1787074804306030e-01 2.9156202077865601e-01</leafValues></_>
    <_>
      <internalNodes>
        0 -1 163183 4.2489737272262573e-02</internalNodes>
      <leafValues>
        7.3936618864536285e-02 -5.7449269294738770e-01</leafValues></_>
    <_>
      <internalNodes>
        0 -1 178550 1.0655988939106464e-02</internalNodes>
      <leafValues>
        4.2384728789329529e-02 -5.5349665880203247e-01</leafValues></_>
    <_>
      <internalNodes>
        0 -1 166389 -1.4657352585345507e-03</internalNodes>
      <leafValues>
        3.3279159665107727e-01 -8.5159339010715485e-02</leafValues></_>
    <_>
      <internalNodes>
        0 -1 259348 -4.1975794010795653e-04</internalNodes>
      <leafValues>
        -3.3467802405357361e-01 8.4388598799705505e-02</leafValues></_>
    <_>
      <internalNodes>
        0 -1 140273 -3.2117474824190140e-02</internalNodes>
      <leafValues>
        2.0421645045280457e-01 -1.3965106010437012e-01</leafValues></_>
    <_>
      <internalNodes>
        0 -1 152410 -1.2082152068614960e-01</internalNodes>
      <leafValues>
        -7.3013204336166382e-01 4.2226336896419525e-02</leafValues></_>
    <_>
      <internalNodes>
        0 -1 259808 -1.6766970977187157e-02</internalNodes>
      <leafValues>
        3.2483056187629700e-01 -1.0236021131277084e-01</leafValues></_>
    <_>
      <internalNodes>
        0 -1 123415 -1.9263254944235086e-03</internalNodes>
      <leafValues>
        3.4363186359405518e-01 -6.8087369203567505e-02</leafValues></_>
    <_>
      <internalNodes>
        0 -1 138973 -1.2821204029023647e-02</internalNodes>
      <leafValues>
        -3.9870280027389526e-01 6.7351713776588440e-02</leafValues></_>
    <_>
      <internalNodes>
        0 -1 179437 2.0398858468979597e-03</internalNodes>
      <leafValues>
        -9.4871118664741516e-02 3.0986279249191284e-01</leafValues></_>
    <_>
      <internalNodes>
        0 -1 118789 -6.6034145653247833e-02</internalNodes>
      <leafValues>
        -7.9394656419754028e-01 3.2429449260234833e-02</leafValues></_>
    <_>
      <internalNodes>
        0 -1 254176 1.4310347847640514e-02</internalNodes>
      <leafValues>
        -1.4029915630817413e-01 2.0360192656517029e-01</leafValues></_>
    <_>
      <internalNodes>
        0 -1 231549 -1.7031010240316391e-02</internalNodes>
      <leafValues>
        3.5086521506309509e-01 -9.3419842422008514e-02</leafValues></_>
    <_>
      <internalNodes>
        0 -1 124425 1.5445414930582047e-02</internalNodes>
      <leafValues>
        4.6009071171283722e-02 -7.1613639593124390e-01</leafValues></_>
    <_>
      <internalNodes>
        0 -1 7786 1.1250521987676620e-02</internalNodes>
      <leafValues>
        -1.0634668171405792e-01 2.7978181838989258e-01</leafValues></_>
    <_>
      <internalNodes>
        0 -1 17253 4.4626029557548463e-04</internalNodes>
      <leafValues>
        9.1707676649093628e-02 -2.8500959277153015e-01</leafValues></_>
    <_>
      <internalNodes>
        0 -1 15671 -1.9141804426908493e-02</internalNodes>
      <leafValues>
        2.8156954050064087e-01 -9.5471702516078949e-02</leafValues></_>
    <_>
      <internalNodes>
        0 -1 15673 9.6587836742401123e-03</internalNodes>
      <leafValues>
        -1.0432541370391846e-01 2.7380996942520142e-01</leafValues></_>
    <_>
      <internalNodes>
        0 -1 175068 1.7430527135729790e-02</internalNodes>
      <leafValues>
        6.5992482006549835e-02 -5.1452034711837769e-01</leafValues></_>
    <_>
      <internalNodes>
        0 -1 178418 3.1470058020204306e-03</internalNodes>
      <leafValues>
        -8.2042329013347626e-02 3.9292323589324951e-01</leafValues></_>
    <_>
      <internalNodes>
        0 -1 177736 2.0659421570599079e-03</internalNodes>
      <leafValues>
        -1.5156792104244232e-01 2.0143987238407135e-01</leafValues></_>
    <_>
      <internalNodes>
        0 -1 855 -6.3284671306610107e-01</internalNodes>
      <leafValues>
        3.2321056723594666e-01 -1.0730630904436111e-01</leafValues></_>
    <_>
      <internalNodes>
        0 -1 163602 2.4489618837833405e-02</internalNodes>
      <leafValues>
        -9.9163018167018890e-02 2.9637566208839417e-01</leafValues></_>
    <_>
      <internalNodes>
        0 -1 138561 -5.9541575610637665e-02</internalNodes>
      <leafValues>
        2.5822573900222778e-01 -1.1441235244274139e-01</leafValues></_>
    <_>
      <internalNodes>
        0 -1 68098 4.7636916860938072e-03</internalNodes>
      <leafValues>
        -9.8100297152996063e-02 3.1159901618957520e-01</leafValues></_>
    <_>
      <internalNodes>
        0 -1 76677 -3.9138151332736015e-03</internalNodes>
      <leafValues>
        3.9948475360870361e-01 -8.7419629096984863e-02</leafValues></_>
    <_>
      <internalNodes>
        0 -1 259348 2.3095255892258137e-04</internalNodes>
      <leafValues>
        1.0847248882055283e-01 -2.6298302412033081e-01</leafValues></_>
    <_>
      <internalNodes>
        0 -1 260675 -2.5515076704323292e-03</internalNodes>
      <leafValues>
        5.1583302021026611e-01 -5.7174421846866608e-02</leafValues></_>
    <_>
      <internalNodes>
        0 -1 176659 1.8357429653406143e-02</internalNodes>
      <leafValues>
        4.5968551188707352e-02 -7.2600662708282471e-01</leafValues></_>
    <_>
      <internalNodes>
        0 -1 107142 1.2875669635832310e-03</internalNodes>
      <leafValues>
        -1.9145339727401733e-01 1.4179231226444244e-01</leafValues></_>
    <_>
      <internalNodes>
        0 -1 111364 -4.2073153890669346e-03</internalNodes>
      <leafValues>
        3.0657869577407837e-01 -9.5483779907226562e-02</leafValues></_>
    <_>
      <internalNodes>
        0 -1 34595 4.9708571285009384e-02</internalNodes>
      <leafValues>
        -4.6000059694051743e-02 5.9394133090972900e-01</leafValues></_>
    <_>
      <internalNodes>
        0 -1 92576 2.4830911308526993e-02</internalNodes>
      <leafValues>
        5.6294925510883331e-02 -5.8346241712570190e-01</leafValues></_>
    <_>
      <internalNodes>
        0 -1 106225 -1.3390013575553894e-01</internalNodes>
      <leafValues>
        -6.3948076963424683e-01 3.8326371461153030e-02</leafValues></_>
    <_>
      <internalNodes>
        0 -1 202563 -1.6277510439977050e-03</internalNodes>
      <leafValues>
        2.5204205513000488e-01 -1.1426004767417908e-01</leafValues></_>
    <_>
      <internalNodes>
        0 -1 142012 -1.0473931208252907e-02</internalNodes>
      <leafValues>
        2.3083993792533875e-01 -1.2110330909490585e-01</leafValues></_>
    <_>
      <internalNodes>
        0 -1 2795 3.3551047090440989e-04</internalNodes>
      <leafValues>
        9.2680551111698151e-02 -2.8889051079750061e-01</leafValues></_>
    <_>
      <internalNodes>
        0 -1 2795 -2.0717649022117257e-04</internalNodes>
      <leafValues>
        -2.5883466005325317e-01 1.1643560230731964e-01</leafValues></_>
    <_>
      <internalNodes>
        0 -1 121904 2.5980472564697266e-03</internalNodes>
      <leafValues>
        -1.1264049261808395e-01 2.5705885887145996e-01</leafValues></_>
    <_>
      <internalNodes>
        0 -1 60619 2.3201040923595428e-02</internalNodes>
      <leafValues>
        6.4188905060291290e-02 -5.1344597339630127e-01</leafValues></_>
    <_>
      <internalNodes>
        0 -1 110316 -2.1326642483472824e-02</internalNodes>
      <leafValues>
        2.9594093561172485e-01 -1.0140205174684525e-01</leafValues></_>
    <_>
      <internalNodes>
        0 -1 147224 -2.7108710259199142e-02</internalNodes>
      <leafValues>
        -6.3578784465789795e-01 4.4236030429601669e-02</leafValues></_>
    <_>
      <internalNodes>
        0 -1 97377 -5.9061688371002674e-03</internalNodes>
      <leafValues>
        3.2683822512626648e-01 -8.5844159126281738e-02</leafValues></_>
    <_>
      <internalNodes>
        0 -1 187468 2.8861034661531448e-02</internalNodes>
      <leafValues>
        5.0086434930562973e-02 -5.5975264310836792e-01</leafValues></_>
    <_>
      <internalNodes>
        0 -1 138677 -3.9175953716039658e-03</internalNodes>
      <leafValues>
        2.1636264026165009e-01 -1.1861542612314224e-01</leafValues></_>
    <_>
      <internalNodes>
        0 -1 192108 -1.8250649794936180e-02</internalNodes>
      <leafValues>
        -8.2602608203887939e-01 3.1380735337734222e-02</leafValues></_>
    <_>
      <internalNodes>
        0 -1 105921 3.8191713392734528e-02</internalNodes>
      <leafValues>
        2.4012302979826927e-02 -7.5997215509414673e-01</leafValues></_>
    <_>
      <internalNodes>
        0 -1 0 -8.9937791926786304e-04</internalNodes>
      <leafValues>
        -3.7662470340728760e-01 5.8838371187448502e-02</leafValues></_>
    <_>
      <internalNodes>
        0 -1 188013 8.7306380737572908e-04</internalNodes>
      <leafValues>
        -1.4167250692844391e-01 1.8117803335189819e-01</leafValues></_>
    <_>
      <internalNodes>
        0 -1 188728 -6.0102660208940506e-03</internalNodes>
      <leafValues>
        5.1012313365936279e-01 -5.6734133511781693e-02</leafValues></_>
    <_>
      <internalNodes>
        0 -1 192042 -9.6754648257046938e-04</internalNodes>
      <leafValues>
        1.7083951830863953e-01 -1.5153023600578308e-01</leafValues></_>
    <_>
      <internalNodes>
        0 -1 166606 -2.2661728784441948e-02</internalNodes>
      <leafValues>
        -6.5006703138351440e-01 3.9135012775659561e-02</leafValues></_>
    <_>
      <internalNodes>
        0 -1 238388 -6.9607859477400780e-03</internalNodes>
      <leafValues>
        -5.6221866607666016e-01 3.8841772824525833e-02</leafValues></_>
    <_>
      <internalNodes>
        0 -1 10702 -4.0653860196471214e-03</internalNodes>
      <leafValues>
        3.5178107023239136e-01 -7.9118527472019196e-02</leafValues></_>
    <_>
      <internalNodes>
        0 -1 7698 3.2706074416637421e-03</internalNodes>
      <leafValues>
        -1.0870803892612457e-01 2.5508400797843933e-01</leafValues></_></weakClassifiers></stage7>
</opencv_storage>
